2.201850612058469381e-01
-1.643788355074243205e-03
4.070129459523874615e-01
1.460356332828886439e+00
-2.831848173315371642e-01
-2.319047885848461443e-01
1.223481876587651618e+00
8.716125346304698374e-01
-4.702557206297655612e-01
3.398861947176616272e-01
-1.489903211929670013e+00
-3.755353198612210175e-01
-3.199426328852063572e-01
-1.867410001326088143e+00
-1.678123428141651496e+00
-5.920686710751414950e-01
-1.078179168626261619e+00
6.436303840218480232e-01
-9.397003176714424644e-01
-1.462895726716284317e+00
-6.757403025039764310e-01
9.851589766939122805e-02
-3.799746367587089352e-03
-1.393932767616042012e+00
-5.072613438138279252e-01
5.801455508972471614e-02
-1.204126421446851447e+00
7.723012007132773471e-01
-6.257740715416628685e-01
-2.769014560545853820e-01
-1.321001140413706532e+00
1.276810862514897060e+00
-2.937189148484118384e-01
-1.053005631365871997e+00
7.600468333271521715e-01
-1.232994790915033168e+00
2.174357675798560888e-02
-1.221889102288483686e+00
-1.335313134633910659e+00
2.292838783535613711e-01
-2.288770992366458312e+00
-1.881594343296876803e-01
-1.230469092631605171e-01
-1.554462247753695958e-01
-5.431295050832918303e-01
-4.275853348473158677e-01
-1.053708563071783788e-01
3.487950398682492237e-01
5.052330379870144661e-01
-1.654995763155098887e+00
1.315329008615545581e-01
-3.891774729785914544e-01
-5.505481121578085224e-01
6.666971240617961536e-01
9.356053164465701899e-01
9.581605376242214867e-01
-8.387014029810136995e-01
-3.103012156720235115e-01
2.894433387148359071e-01
4.504595339774427054e-01
-4.771038229650747531e-01
-2.183829101182479804e-01
-5.688210172249853480e-01
-6.443314085251168333e-01
8.676988072392017859e-01
1.362488062121270271e+00
-7.596504096468148504e-02
1.018781297031023714e+00
2.174368996662063847e-01
-6.632809564990307383e-01
